<?xml version="1.0"?>
<opencv_storage>
<opencv_ml_svm>
  <format>3</format>
  <svmType>ONE_CLASS</svmType>
  <kernel>
    <type>LINEAR</type></kernel>
  <nu>9.9999997473787516e-06</nu>
  <term_criteria><epsilon>1.1920928955078125e-07</epsilon>
    <iterations>1000</iterations></term_criteria>
  <var_count>3</var_count>
  <class_count>1</class_count>
  <sv_total>1</sv_total>
  <support_vectors>
    <_>
      -1.80378575e-02 -1.80830192e-02 -1.74772013e-02</_></support_vectors>
  <uncompressed_sv_total>10</uncompressed_sv_total>
  <uncompressed_support_vectors>
    <_>
      2.15686262e-01 2.19607830e-01 2.03921556e-01</_>
    <_>
      2.03921556e-01 2.27450967e-01 2.07843125e-01</_>
    <_>
      2.11764693e-01 2.11764693e-01 2.03921556e-01</_>
    <_>
      -2.35294133e-01 -2.47058839e-01 -2.62745112e-01</_>
    <_>
      -1.17647052e-02 3.92156839e-03 3.92156839e-02</_>
    <_>
      -1.68627471e-01 -1.72549039e-01 -1.33333355e-01</_>
    <_>
      2.31372535e-01 2.39215672e-01 2.66666710e-01</_>
    <_>
      2.74509847e-01 2.74509847e-01 3.01960826e-01</_>
    <_>
      -1.45098060e-01 -1.13725483e-01 -1.01960778e-01</_>
    <_>
      2.74509847e-01 2.90196121e-01 3.05882394e-01</_></uncompressed_support_vectors>
  <decision_functions>
    <_>
      <sv_count>1</sv_count>
      <rho>-1.7533643182592596e-06</rho>
      <alpha>
        1.</alpha></_></decision_functions></opencv_ml_svm>
</opencv_storage>
