<?xml version="1.0"?>
<opencv_storage>
<opencv_ml_svm>
  <format>3</format>
  <svmType>ONE_CLASS</svmType>
  <kernel>
    <type>RBF</type>
    <gamma>1.</gamma></kernel>
  <nu>6.9999999999999999e-04</nu>
  <term_criteria><epsilon>1.1920928955078125e-07</epsilon>
    <iterations>1000</iterations></term_criteria>
  <var_count>3</var_count>
  <class_count>1</class_count>
  <sv_total>321</sv_total>
  <support_vectors>
    <_>
      2.70588279e-01 2.03921556e-01 1.41176462e-01</_>
    <_>
      1.96078420e-01 1.29411757e-01 8.62745047e-02</_>
    <_>
      1.99999988e-01 1.45098031e-01 6.66666627e-02</_>
    <_>
      1.88235283e-01 1.29411757e-01 7.05882311e-02</_>
    <_>
      1.96078420e-01 1.37254894e-01 6.66666627e-02</_>
    <_>
      1.88235283e-01 1.29411757e-01 7.05882311e-02</_>
    <_>
      1.92156851e-01 1.29411757e-01 5.88235259e-02</_>
    <_>
      1.96078420e-01 1.13725483e-01 6.66666627e-02</_>
    <_>
      1.80392146e-01 1.17647052e-01 6.66666627e-02</_>
    <_>
      1.84313715e-01 1.25490189e-01 6.27450943e-02</_>
    <_>
      1.96078420e-01 1.17647052e-01 8.62745047e-02</_>
    <_>
      1.84313715e-01 1.17647052e-01 7.84313679e-02</_>
    <_>
      1.92156851e-01 1.13725483e-01 8.23529363e-02</_>
    <_>
      1.88235283e-01 1.29411757e-01 7.05882311e-02</_>
    <_>
      1.88235283e-01 1.21568620e-01 8.62745047e-02</_>
    <_>
      1.88235283e-01 1.25490189e-01 8.23529363e-02</_>
    <_>
      2.07843125e-01 1.17647052e-01 8.62745047e-02</_>
    <_>
      1.84313715e-01 1.17647052e-01 7.84313679e-02</_>
    <_>
      1.80392146e-01 1.21568620e-01 8.62745047e-02</_>
    <_>
      1.99999988e-01 1.45098031e-01 6.66666627e-02</_>
    <_>
      1.96078420e-01 1.37254894e-01 6.66666627e-02</_>
    <_>
      1.88235283e-01 1.17647052e-01 6.66666627e-02</_>
    <_>
      1.88235283e-01 1.21568620e-01 5.88235259e-02</_>
    <_>
      1.99999988e-01 1.25490189e-01 5.88235259e-02</_>
    <_>
      1.96078420e-01 1.33333325e-01 6.27450943e-02</_>
    <_>
      1.96078420e-01 1.29411757e-01 7.05882311e-02</_>
    <_>
      1.96078420e-01 1.37254894e-01 5.49019575e-02</_>
    <_>
      1.96078420e-01 1.29411757e-01 8.62745047e-02</_>
    <_>
      1.99999988e-01 1.45098031e-01 6.66666627e-02</_>
    <_>
      1.96078420e-01 1.29411757e-01 8.62745047e-02</_>
    <_>
      1.88235283e-01 1.29411757e-01 7.05882311e-02</_>
    <_>
      1.88235283e-01 1.33333325e-01 6.27450943e-02</_>
    <_>
      1.96078420e-01 1.33333325e-01 7.45097995e-02</_>
    <_>
      1.96078420e-01 1.33333325e-01 6.27450943e-02</_>
    <_>
      2.07843125e-01 1.25490189e-01 7.45097995e-02</_>
    <_>
      1.88235283e-01 1.25490189e-01 7.45097995e-02</_>
    <_>
      1.96078420e-01 1.33333325e-01 7.45097995e-02</_>
    <_>
      1.88235283e-01 1.29411757e-01 7.05882311e-02</_>
    <_>
      1.88235283e-01 1.21568620e-01 8.62745047e-02</_>
    <_>
      1.88235283e-01 1.25490189e-01 8.23529363e-02</_>
    <_>
      2.07843125e-01 1.17647052e-01 8.62745047e-02</_>
    <_>
      1.84313715e-01 1.17647052e-01 7.84313679e-02</_>
    <_>
      1.76470578e-01 1.17647052e-01 8.23529363e-02</_>
    <_>
      1.92156851e-01 1.37254894e-01 8.23529363e-02</_>
    <_>
      1.99999988e-01 1.45098031e-01 6.66666627e-02</_>
    <_>
      1.99999988e-01 1.45098031e-01 6.66666627e-02</_>
    <_>
      1.96078420e-01 1.33333325e-01 7.45097995e-02</_>
    <_>
      2.03921556e-01 1.37254894e-01 6.66666627e-02</_>
    <_>
      1.96078420e-01 1.37254894e-01 6.66666627e-02</_>
    <_>
      1.92156851e-01 1.21568620e-01 7.05882311e-02</_>
    <_>
      1.92156851e-01 1.25490189e-01 6.27450943e-02</_>
    <_>
      1.99999988e-01 1.25490189e-01 5.88235259e-02</_>
    <_>
      1.96078420e-01 1.33333325e-01 6.27450943e-02</_>
    <_>
      1.96078420e-01 1.29411757e-01 7.05882311e-02</_>
    <_>
      2.07843125e-01 1.33333325e-01 5.49019575e-02</_>
    <_>
      1.96078420e-01 1.37254894e-01 5.49019575e-02</_>
    <_>
      1.96078420e-01 1.33333325e-01 7.84313679e-02</_>
    <_>
      1.96078420e-01 1.33333325e-01 7.45097995e-02</_>
    <_>
      1.96078420e-01 1.37254894e-01 6.66666627e-02</_>
    <_>
      1.99999988e-01 1.45098031e-01 6.66666627e-02</_>
    <_>
      1.96078420e-01 1.37254894e-01 6.66666627e-02</_>
    <_>
      1.96078420e-01 1.33333325e-01 7.84313679e-02</_>
    <_>
      1.96078420e-01 1.37254894e-01 6.66666627e-02</_>
    <_>
      1.96078420e-01 1.33333325e-01 7.84313679e-02</_>
    <_>
      1.96078420e-01 1.33333325e-01 7.84313679e-02</_>
    <_>
      1.88235283e-01 1.25490189e-01 7.45097995e-02</_>
    <_>
      1.96078420e-01 1.25490189e-01 7.45097995e-02</_>
    <_>
      2.03921556e-01 1.37254894e-01 6.66666627e-02</_>
    <_>
      1.92156851e-01 1.21568620e-01 7.05882311e-02</_>
    <_>
      1.96078420e-01 1.29411757e-01 7.05882311e-02</_>
    <_>
      2.07843125e-01 1.29411757e-01 7.05882311e-02</_>
    <_>
      1.96078420e-01 1.29411757e-01 7.05882311e-02</_>
    <_>
      2.07843125e-01 1.25490189e-01 5.88235259e-02</_>
    <_>
      2.07843125e-01 1.29411757e-01 6.27450943e-02</_>
    <_>
      2.07843125e-01 1.29411757e-01 7.05882311e-02</_>
    <_>
      2.15686262e-01 1.29411757e-01 6.27450943e-02</_>
    <_>
      2.07843125e-01 1.29411757e-01 5.09803891e-02</_>
    <_>
      1.99999988e-01 1.45098031e-01 6.66666627e-02</_>
    <_>
      1.88235283e-01 1.25490189e-01 7.45097995e-02</_>
    <_>
      1.96078420e-01 1.25490189e-01 7.45097995e-02</_>
    <_>
      2.07843125e-01 1.25490189e-01 7.45097995e-02</_>
    <_>
      1.96078420e-01 1.33333325e-01 6.27450943e-02</_>
    <_>
      1.96078420e-01 1.25490189e-01 7.45097995e-02</_>
    <_>
      2.03921556e-01 1.37254894e-01 6.66666627e-02</_>
    <_>
      2.03921556e-01 1.37254894e-01 6.66666627e-02</_>
    <_>
      1.92156851e-01 1.25490189e-01 6.27450943e-02</_>
    <_>
      1.99999988e-01 1.21568620e-01 6.27450943e-02</_>
    <_>
      1.96078420e-01 1.29411757e-01 7.05882311e-02</_>
    <_>
      2.15686262e-01 1.29411757e-01 6.27450943e-02</_>
    <_>
      2.07843125e-01 1.29411757e-01 6.27450943e-02</_>
    <_>
      2.07843125e-01 1.29411757e-01 7.05882311e-02</_>
    <_>
      2.15686262e-01 1.29411757e-01 6.27450943e-02</_>
    <_>
      2.15686262e-01 1.33333325e-01 5.49019575e-02</_>
    <_>
      1.99999988e-01 1.45098031e-01 6.66666627e-02</_>
    <_>
      2.07843125e-01 1.25490189e-01 7.45097995e-02</_>
    <_>
      1.96078420e-01 1.25490189e-01 7.45097995e-02</_>
    <_>
      2.07843125e-01 1.29411757e-01 7.05882311e-02</_>
    <_>
      2.03921556e-01 1.37254894e-01 6.66666627e-02</_>
    <_>
      2.07843125e-01 1.29411757e-01 7.05882311e-02</_>
    <_>
      2.07843125e-01 1.33333325e-01 5.49019575e-02</_>
    <_>
      2.03921556e-01 1.41176462e-01 6.27450943e-02</_>
    <_>
      2.03921556e-01 1.37254894e-01 6.66666627e-02</_>
    <_>
      1.99999988e-01 1.45098031e-01 6.66666627e-02</_>
    <_>
      2.07843125e-01 1.25490189e-01 7.45097995e-02</_>
    <_>
      1.99999988e-01 1.29411757e-01 5.09803891e-02</_>
    <_>
      2.03921556e-01 1.41176462e-01 6.27450943e-02</_>
    <_>
      2.03921556e-01 1.37254894e-01 6.66666627e-02</_>
    <_>
      1.96078420e-01 1.33333325e-01 7.84313679e-02</_>
    <_>
      1.99999988e-01 1.45098031e-01 6.66666627e-02</_>
    <_>
      1.96078420e-01 1.37254894e-01 6.66666627e-02</_>
    <_>
      1.96078420e-01 1.33333325e-01 6.27450943e-02</_>
    <_>
      1.96078420e-01 1.33333325e-01 7.84313679e-02</_>
    <_>
      1.96078420e-01 1.33333325e-01 7.84313679e-02</_>
    <_>
      2.03921556e-01 1.37254894e-01 6.66666627e-02</_>
    <_>
      1.88235283e-01 1.33333325e-01 6.27450943e-02</_>
    <_>
      2.03921556e-01 1.37254894e-01 6.66666627e-02</_>
    <_>
      1.99999988e-01 1.45098031e-01 6.66666627e-02</_>
    <_>
      1.96078420e-01 1.41176462e-01 6.27450943e-02</_>
    <_>
      1.96078420e-01 1.41176462e-01 6.27450943e-02</_>
    <_>
      1.96078420e-01 1.41176462e-01 6.27450943e-02</_>
    <_>
      1.99999988e-01 1.45098031e-01 6.66666627e-02</_>
    <_>
      1.99999988e-01 1.45098031e-01 6.66666627e-02</_>
    <_>
      1.96078420e-01 1.41176462e-01 6.27450943e-02</_>
    <_>
      2.03921556e-01 1.41176462e-01 6.27450943e-02</_>
    <_>
      1.99999988e-01 1.45098031e-01 6.66666627e-02</_>
    <_>
      1.96078420e-01 1.41176462e-01 6.27450943e-02</_>
    <_>
      1.99999988e-01 1.45098031e-01 6.66666627e-02</_>
    <_>
      1.96078420e-01 1.41176462e-01 6.27450943e-02</_>
    <_>
      1.96078420e-01 1.41176462e-01 6.27450943e-02</_>
    <_>
      2.03921556e-01 1.41176462e-01 6.27450943e-02</_>
    <_>
      2.03921556e-01 1.41176462e-01 6.27450943e-02</_>
    <_>
      1.96078420e-01 1.41176462e-01 6.27450943e-02</_>
    <_>
      1.96078420e-01 1.41176462e-01 6.27450943e-02</_>
    <_>
      1.96078420e-01 1.41176462e-01 6.27450943e-02</_>
    <_>
      1.96078420e-01 1.41176462e-01 6.27450943e-02</_>
    <_>
      1.96078420e-01 1.41176462e-01 6.27450943e-02</_>
    <_>
      1.96078420e-01 1.41176462e-01 6.27450943e-02</_>
    <_>
      1.96078420e-01 1.41176462e-01 6.27450943e-02</_>
    <_>
      1.96078420e-01 1.41176462e-01 6.27450943e-02</_>
    <_>
      2.03921556e-01 1.41176462e-01 6.27450943e-02</_>
    <_>
      1.96078420e-01 1.33333325e-01 7.84313679e-02</_>
    <_>
      1.96078420e-01 1.33333325e-01 7.84313679e-02</_>
    <_>
      1.99999988e-01 1.49019599e-01 5.88235259e-02</_>
    <_>
      1.96078420e-01 1.33333325e-01 7.45097995e-02</_>
    <_>
      1.96078420e-01 1.33333325e-01 7.84313679e-02</_>
    <_>
      1.88235283e-01 1.25490189e-01 8.23529363e-02</_>
    <_>
      1.88235283e-01 1.25490189e-01 8.23529363e-02</_>
    <_>
      1.96078420e-01 1.29411757e-01 8.62745047e-02</_>
    <_>
      1.96078420e-01 1.29411757e-01 8.62745047e-02</_>
    <_>
      1.96078420e-01 1.29411757e-01 8.62745047e-02</_>
    <_>
      1.96078420e-01 1.33333325e-01 7.84313679e-02</_>
    <_>
      1.88235283e-01 1.25490189e-01 7.45097995e-02</_>
    <_>
      1.96078420e-01 1.33333325e-01 7.84313679e-02</_>
    <_>
      1.84313715e-01 1.21568620e-01 7.05882311e-02</_>
    <_>
      2.07843125e-01 1.33333325e-01 5.49019575e-02</_>
    <_>
      2.03921556e-01 1.41176462e-01 6.27450943e-02</_>
    <_>
      1.96078420e-01 1.25490189e-01 7.45097995e-02</_>
    <_>
      2.03921556e-01 1.41176462e-01 6.27450943e-02</_>
    <_>
      4.15686309e-01 2.98039258e-01 2.54902005e-01</_>
    <_>
      4.15686309e-01 2.98039258e-01 2.54902005e-01</_>
    <_>
      4.15686309e-01 2.98039258e-01 2.54902005e-01</_>
    <_>
      4.15686309e-01 2.98039258e-01 2.54902005e-01</_>
    <_>
      4.15686309e-01 2.98039258e-01 2.54902005e-01</_>
    <_>
      4.11764741e-01 3.01960826e-01 2.58823574e-01</_>
    <_>
      4.11764741e-01 3.01960826e-01 2.58823574e-01</_>
    <_>
      4.00000036e-01 3.09803963e-01 2.62745142e-01</_>
    <_>
      4.07843173e-01 3.09803963e-01 2.54902005e-01</_>
    <_>
      4.00000036e-01 3.09803963e-01 2.62745142e-01</_>
    <_>
      4.00000036e-01 3.09803963e-01 2.62745142e-01</_>
    <_>
      4.15686309e-01 3.13725531e-01 2.50980437e-01</_>
    <_>
      4.07843173e-01 3.13725531e-01 2.50980437e-01</_>
    <_>
      4.19607878e-01 3.01960826e-01 2.58823574e-01</_>
    <_>
      4.07843173e-01 3.13725531e-01 2.50980437e-01</_>
    <_>
      4.07843173e-01 3.13725531e-01 2.50980437e-01</_>
    <_>
      4.00000036e-01 3.09803963e-01 2.62745142e-01</_>
    <_>
      4.11764741e-01 3.01960826e-01 2.58823574e-01</_>
    <_>
      4.00000036e-01 3.09803963e-01 2.62745142e-01</_>
    <_>
      4.19607878e-01 3.01960826e-01 2.58823574e-01</_>
    <_>
      4.07843173e-01 3.13725531e-01 2.50980437e-01</_>
    <_>
      4.00000036e-01 3.09803963e-01 2.62745142e-01</_>
    <_>
      4.11764741e-01 3.01960826e-01 2.58823574e-01</_>
    <_>
      4.11764741e-01 3.01960826e-01 2.58823574e-01</_>
    <_>
      4.15686309e-01 3.13725531e-01 2.50980437e-01</_>
    <_>
      4.19607878e-01 3.01960826e-01 2.58823574e-01</_>
    <_>
      4.19607878e-01 3.05882394e-01 2.50980437e-01</_>
    <_>
      4.19607878e-01 3.17647099e-01 2.54902005e-01</_>
    <_>
      4.03921604e-01 3.25490236e-01 2.47058809e-01</_>
    <_>
      4.19607878e-01 3.05882394e-01 2.50980437e-01</_>
    <_>
      4.23529446e-01 3.05882394e-01 2.62745142e-01</_>
    <_>
      4.07843173e-01 3.09803963e-01 2.62745142e-01</_>
    <_>
      4.00000036e-01 3.09803963e-01 2.62745142e-01</_>
    <_>
      4.11764741e-01 3.01960826e-01 2.58823574e-01</_>
    <_>
      4.23529446e-01 3.09803963e-01 2.50980437e-01</_>
    <_>
      4.19607878e-01 3.17647099e-01 2.54902005e-01</_>
    <_>
      4.11764741e-01 3.17647099e-01 2.54902005e-01</_>
    <_>
      4.07843173e-01 3.09803963e-01 2.54902005e-01</_>
    <_>
      4.11764741e-01 3.01960826e-01 2.58823574e-01</_>
    <_>
      4.15686309e-01 2.94117689e-01 2.58823574e-01</_>
    <_>
      4.19607878e-01 3.09803963e-01 2.66666710e-01</_>
    <_>
      4.11764741e-01 3.13725531e-01 2.66666710e-01</_>
    <_>
      4.00000036e-01 3.09803963e-01 2.62745142e-01</_>
    <_>
      4.19607878e-01 3.05882394e-01 2.43137240e-01</_>
    <_>
      4.19607878e-01 3.17647099e-01 2.54902005e-01</_>
    <_>
      4.11764741e-01 3.17647099e-01 2.54902005e-01</_>
    <_>
      4.07843173e-01 3.09803963e-01 2.54902005e-01</_>
    <_>
      4.11764741e-01 3.01960826e-01 2.58823574e-01</_>
    <_>
      4.15686309e-01 2.94117689e-01 2.58823574e-01</_>
    <_>
      4.15686309e-01 3.05882394e-01 2.62745142e-01</_>
    <_>
      4.07843173e-01 3.09803963e-01 2.62745142e-01</_>
    <_>
      4.07843173e-01 3.09803963e-01 2.54902005e-01</_>
    <_>
      4.00000036e-01 3.09803963e-01 2.62745142e-01</_>
    <_>
      4.07843173e-01 3.09803963e-01 2.62745142e-01</_>
    <_>
      4.11764741e-01 3.01960826e-01 2.58823574e-01</_>
    <_>
      4.15686309e-01 3.13725531e-01 2.50980437e-01</_>
    <_>
      4.15686309e-01 3.09803963e-01 2.54902005e-01</_>
    <_>
      4.15686309e-01 3.05882394e-01 2.62745142e-01</_>
    <_>
      4.07843173e-01 3.09803963e-01 2.62745142e-01</_>
    <_>
      4.15686309e-01 3.05882394e-01 2.62745142e-01</_>
    <_>
      4.07843173e-01 3.09803963e-01 2.54902005e-01</_>
    <_>
      4.15686309e-01 3.13725531e-01 2.50980437e-01</_>
    <_>
      4.15686309e-01 3.09803963e-01 2.54902005e-01</_>
    <_>
      4.11764741e-01 3.01960826e-01 2.58823574e-01</_>
    <_>
      4.07843173e-01 3.09803963e-01 2.54902005e-01</_>
    <_>
      4.11764741e-01 3.13725531e-01 2.66666710e-01</_>
    <_>
      4.00000036e-01 3.09803963e-01 2.62745142e-01</_>
    <_>
      4.00000036e-01 3.09803963e-01 2.62745142e-01</_>
    <_>
      4.15686309e-01 3.09803963e-01 2.54902005e-01</_>
    <_>
      4.07843173e-01 3.09803963e-01 2.62745142e-01</_>
    <_>
      4.07843173e-01 3.09803963e-01 2.54902005e-01</_>
    <_>
      4.07843173e-01 3.09803963e-01 2.54902005e-01</_>
    <_>
      4.07843173e-01 3.09803963e-01 2.62745142e-01</_>
    <_>
      4.03921604e-01 3.13725531e-01 2.66666710e-01</_>
    <_>
      4.07843173e-01 3.09803963e-01 2.62745142e-01</_>
    <_>
      4.15686309e-01 3.09803963e-01 2.54902005e-01</_>
    <_>
      4.07843173e-01 3.09803963e-01 2.62745142e-01</_>
    <_>
      4.07843173e-01 3.13725531e-01 2.50980437e-01</_>
    <_>
      4.07843173e-01 3.09803963e-01 2.54902005e-01</_>
    <_>
      4.00000036e-01 3.09803963e-01 2.62745142e-01</_>
    <_>
      4.15686309e-01 3.13725531e-01 2.50980437e-01</_>
    <_>
      4.07843173e-01 3.09803963e-01 2.54902005e-01</_>
    <_>
      4.07843173e-01 3.09803963e-01 2.54902005e-01</_>
    <_>
      4.00000036e-01 3.09803963e-01 2.62745142e-01</_>
    <_>
      4.15686309e-01 3.13725531e-01 2.50980437e-01</_>
    <_>
      4.07843173e-01 3.09803963e-01 2.54902005e-01</_>
    <_>
      4.27451015e-01 3.05882394e-01 2.43137240e-01</_>
    <_>
      4.19607878e-01 3.05882394e-01 2.43137240e-01</_>
    <_>
      4.11764741e-01 3.01960826e-01 2.58823574e-01</_>
    <_>
      4.07843173e-01 3.13725531e-01 2.50980437e-01</_>
    <_>
      4.19607878e-01 3.01960826e-01 2.58823574e-01</_>
    <_>
      4.23529446e-01 3.09803963e-01 2.50980437e-01</_>
    <_>
      4.07843173e-01 3.09803963e-01 2.54902005e-01</_>
    <_>
      4.07843173e-01 3.13725531e-01 2.50980437e-01</_>
    <_>
      4.07843173e-01 3.09803963e-01 2.54902005e-01</_>
    <_>
      4.00000036e-01 3.09803963e-01 2.62745142e-01</_>
    <_>
      4.00000036e-01 3.09803963e-01 2.62745142e-01</_>
    <_>
      4.19607878e-01 3.01960826e-01 2.58823574e-01</_>
    <_>
      4.19607878e-01 3.09803963e-01 2.39215672e-01</_>
    <_>
      4.00000036e-01 3.05882394e-01 2.66666710e-01</_>
    <_>
      4.07843173e-01 3.09803963e-01 2.62745142e-01</_>
    <_>
      4.19607878e-01 3.09803963e-01 2.39215672e-01</_>
    <_>
      4.07843173e-01 3.09803963e-01 2.62745142e-01</_>
    <_>
      4.11764741e-01 3.01960826e-01 2.58823574e-01</_>
    <_>
      4.11764741e-01 3.01960826e-01 2.58823574e-01</_>
    <_>
      4.07843173e-01 3.09803963e-01 2.62745142e-01</_>
    <_>
      4.11764741e-01 3.01960826e-01 2.58823574e-01</_>
    <_>
      4.00000036e-01 3.09803963e-01 2.62745142e-01</_>
    <_>
      4.07843173e-01 3.09803963e-01 2.62745142e-01</_>
    <_>
      4.00000036e-01 3.09803963e-01 2.62745142e-01</_>
    <_>
      4.07843173e-01 3.09803963e-01 2.62745142e-01</_>
    <_>
      4.00000036e-01 3.09803963e-01 2.62745142e-01</_>
    <_>
      4.07843173e-01 3.09803963e-01 2.62745142e-01</_>
    <_>
      4.07843173e-01 3.13725531e-01 2.50980437e-01</_>
    <_>
      4.15686309e-01 3.13725531e-01 2.50980437e-01</_>
    <_>
      4.07843173e-01 3.13725531e-01 2.50980437e-01</_>
    <_>
      4.11764741e-01 3.13725531e-01 2.66666710e-01</_>
    <_>
      4.03921604e-01 3.17647099e-01 2.58823574e-01</_>
    <_>
      4.07843173e-01 3.09803963e-01 2.62745142e-01</_>
    <_>
      4.11764741e-01 3.21568668e-01 2.47058809e-01</_>
    <_>
      4.03921604e-01 3.25490236e-01 2.47058809e-01</_>
    <_>
      4.15686309e-01 3.13725531e-01 2.50980437e-01</_>
    <_>
      4.15686309e-01 3.05882394e-01 2.62745142e-01</_>
    <_>
      4.07843173e-01 3.09803963e-01 2.62745142e-01</_>
    <_>
      4.07843173e-01 3.09803963e-01 2.54902005e-01</_>
    <_>
      4.00000036e-01 3.09803963e-01 2.62745142e-01</_>
    <_>
      4.07843173e-01 3.13725531e-01 2.50980437e-01</_>
    <_>
      4.00000036e-01 3.09803963e-01 2.62745142e-01</_>
    <_>
      4.03921604e-01 3.25490236e-01 2.47058809e-01</_>
    <_>
      4.11764741e-01 3.21568668e-01 2.47058809e-01</_>
    <_>
      4.03921604e-01 3.25490236e-01 2.47058809e-01</_>
    <_>
      4.11764741e-01 3.01960826e-01 2.58823574e-01</_>
    <_>
      4.07843173e-01 3.09803963e-01 2.54902005e-01</_>
    <_>
      4.00000036e-01 3.09803963e-01 2.62745142e-01</_>
    <_>
      4.03921604e-01 3.25490236e-01 2.47058809e-01</_>
    <_>
      4.11764741e-01 3.21568668e-01 2.47058809e-01</_>
    <_>
      4.03921604e-01 3.25490236e-01 2.47058809e-01</_>
    <_>
      4.07843173e-01 3.09803963e-01 2.54902005e-01</_>
    <_>
      4.15686309e-01 3.17647099e-01 2.43137240e-01</_>
    <_>
      4.07843173e-01 3.09803963e-01 2.54902005e-01</_>
    <_>
      4.00000036e-01 3.09803963e-01 2.62745142e-01</_>
    <_>
      4.07843173e-01 3.13725531e-01 2.50980437e-01</_>
    <_>
      4.07843173e-01 3.09803963e-01 2.54902005e-01</_>
    <_>
      4.00000036e-01 3.09803963e-01 2.62745142e-01</_>
    <_>
      4.11764741e-01 3.17647099e-01 2.54902005e-01</_>
    <_>
      4.03921604e-01 3.21568668e-01 2.54902005e-01</_>
    <_>
      4.00000036e-01 3.09803963e-01 2.62745142e-01</_>
    <_>
      4.11764741e-01 3.17647099e-01 2.54902005e-01</_>
    <_>
      4.03921604e-01 3.25490236e-01 2.47058809e-01</_>
    <_>
      4.07843173e-01 3.13725531e-01 2.50980437e-01</_>
    <_>
      4.07843173e-01 3.13725531e-01 2.50980437e-01</_>
    <_>
      4.19607878e-01 3.09803963e-01 2.39215672e-01</_>
    <_>
      4.19607878e-01 3.17647099e-01 2.27450967e-01</_>
    <_>
      4.00000036e-01 3.09803963e-01 2.62745142e-01</_>
    <_>
      4.19607878e-01 3.17647099e-01 2.27450967e-01</_>
    <_>
      4.07843173e-01 3.13725531e-01 2.50980437e-01</_>
    <_>
      4.19607878e-01 3.05882394e-01 2.43137240e-01</_>
    <_>
      4.19607878e-01 3.05882394e-01 2.50980437e-01</_>
    <_>
      4.19607878e-01 3.05882394e-01 2.50980437e-01</_>
    <_>
      4.19607878e-01 3.05882394e-01 2.43137240e-01</_>
    <_>
      4.15686309e-01 3.17647099e-01 2.43137240e-01</_>
    <_>
      4.07843173e-01 3.13725531e-01 2.50980437e-01</_>
    <_>
      1.80392146e-01 8.23529363e-02 7.84313679e-02</_></support_vectors>
  <decision_functions>
    <_>
      <sv_count>321</sv_count>
      <rho>3.0254327124357224e+02</rho>
      <alpha>
        -4.6780000000001110e-01 1. 1. 1. 1. 1. 1. 1. 1. 1. 1. 1. 1. 1.
        1. 1. 1. 1. 1. 1. 1. 1. 1. 1. 1. 1. 1. 1. 1. 1. 1. 1. 1. 1. 1.
        1. 1. 1. 1. 1. 1. 1. 1. 1. 1. 1. 1. 1. 1. 1. 1. 1. 1. 1. 1. 1.
        1. 1. 1. 1. 1. 1. 1. 1. 1. 1. 1. 1. 1. 1. 1. 1. 1. 1. 1. 1. 1.
        1. 1. 1. 1. 1. 1. 1. 1. 1. 1. 1. 1. 1. 1. 1. 1. 1. 1. 1. 1. 1.
        1. 1. 1. 1. 1. 1. 1. 1. 1. 1. 1. 1. 1. 1. 1. 1. 1. 1. 1. 1. 1.
        1. 1. 1. 1. 1. 1. 1. 8.5950550678847670e-01 1. 1. 1. 1. 1. 1. 1.
        1. 1. 1. 1. 1. 1. 1. 1. 1. 1. 1. 1. 1. 1. 1. 1. 1. 1. 1. 1. 1.
        1. 1. 1. 1.4049449321152330e-01 1. 1. 1. 1. 1. 1. 1. 1. 1. 1. 1.
        1. 1. 1. 1. 1. 1. 1. 1. 1. 1. 1. 1. 1. 1. 1. 1. 1. 1. 1. 1. 1.
        1. 1. 1. 1. 1. 1. 1. 1. 1. 1. 1. 1. 1. 1. 1. 1. 1. 1. 1. 1. 1.
        1. 1. 1. 1. 1. 1. 1. 1. 1. 1. 1. 1. 1. 1. 1. 1. 1. 1. 1. 1. 1.
        1. 1. 1. 1. 1. 1. 1. 1. 1. 1. 1. 1. 1. 1. 1. 1. 1. 1. 1. 1. 1.
        1. 1. 1. 1. 1. 1. 1. 1. 1. 1. 1. 1. 1. 1. 1. 1. 1. 1. 1. 1. 1.
        1. 1. 1. 1. 1. 1. 1. 1. 1. 1. 1. 1. 1. 1. 1. 1. 1. 1. 1. 1. 1.
        1. 1. 1. 1. 1. 1. 1. 1. 1. 1. 1. 1. 1. 1. 1. 1. 1. 1. 1. 1. 1.
        1. 1. 1. 1.</alpha></_></decision_functions></opencv_ml_svm>
</opencv_storage>
